Language model created by QuickLM on Mon Jul 25 07:00:15 EDT 2016
Copyright (c) 1996-2010 Carnegie Mellon University and Alexander I. Rudnicky

The model is in standard ARPA format, designed by Doug Paul while he was at MITRE.

The code that was used to produce this language model is available in Open Source.
Please visit http://www.speech.cs.cmu.edu/tools/ for more information

The (fixed) discount mass is 0.5. The backoffs are computed using the ratio method.
This model based on a corpus of 21 sentences and 35 words

\data\
ngram 1=35
ngram 2=59
ngram 3=52

\1-grams:
-0.9874 </s> -0.3010
-0.9874 <s> -0.2515
-2.3096 ARE -0.2989
-1.7076 ARM -0.2539
-2.3096 BACKWARDS -0.2539
-2.3096 CLOSE -0.2881
-2.0086 DANCE -0.2515
-2.3096 FIVE -0.2924
-2.0086 FOOT -0.2539
-2.3096 FORWARDS -0.2539
-2.3096 FOUR -0.2924
-2.0086 GRIPPER -0.2539
-2.3096 HELLO -0.2946
-2.3096 HOW -0.2989
-2.0086 KICK -0.2837
-1.7076 LEFT -0.2394
-2.3096 LIKE -0.2989
-2.0086 LOWER -0.2881
-1.8325 MARTY -0.2491
-2.3096 NO -0.2989
-2.3096 ONE -0.2989
-2.3096 ONE'S -0.2989
-2.3096 OPEN -0.2881
-2.0086 RAISE -0.2881
-1.7076 RIGHT -0.2394
-2.3096 STEP -0.2539
-1.7076 STEPS -0.2539
-2.3096 THREE -0.2924
-2.3096 TODAY? -0.2539
-2.0086 TURN -0.2837
-2.3096 TWO -0.2924
-2.0086 WALK -0.2968
-2.3096 WATCHING -0.2539
-2.3096 YOU -0.2989
-1.5315 YOUR -0.2792

\2-grams:
-1.6232 <s> CLOSE 0.0000
-1.6232 <s> FIVE 0.0000
-1.6232 <s> FOUR 0.0000
-1.6232 <s> HELLO 0.0000
-1.6232 <s> HOW 0.0000
-1.3222 <s> KICK 0.0000
-1.3222 <s> LOWER 0.0000
-1.3222 <s> MARTY -0.1249
-1.6232 <s> ONE 0.0000
-1.6232 <s> OPEN 0.0000
-1.3222 <s> RAISE 0.0000
-1.6232 <s> THREE 0.0000
-1.3222 <s> TURN 0.0000
-1.6232 <s> TWO 0.0000
-1.3222 <s> WALK 0.0000
-0.3010 ARE YOU 0.0000
-0.3010 ARM </s> -0.3010
-0.3010 BACKWARDS </s> -0.3010
-0.3010 CLOSE YOUR -0.2218
-0.6021 DANCE </s> -0.3010
-0.6021 DANCE LIKE 0.0000
-0.3010 FIVE STEPS 0.0000
-0.3010 FOOT </s> -0.3010
-0.3010 FORWARDS </s> -0.3010
-0.3010 FOUR STEPS 0.0000
-0.3010 GRIPPER </s> -0.3010
-0.3010 HELLO MARTY -0.2218
-0.3010 HOW ARE 0.0000
-0.6021 KICK LEFT -0.2430
-0.6021 KICK RIGHT -0.2430
-0.9031 LEFT </s> -0.3010
-0.6021 LEFT ARM 0.0000
-0.9031 LEFT FOOT 0.0000
-0.3010 LIKE NO 0.0000
-0.3010 LOWER YOUR -0.1249
-0.7782 MARTY </s> -0.3010
-0.4771 MARTY DANCE 0.0000
-0.3010 NO ONE'S 0.0000
-0.3010 ONE STEP 0.0000
-0.3010 ONE'S WATCHING 0.0000
-0.3010 OPEN YOUR -0.2218
-0.3010 RAISE YOUR -0.1249
-0.9031 RIGHT </s> -0.3010
-0.6021 RIGHT ARM 0.0000
-0.9031 RIGHT FOOT 0.0000
-0.3010 STEP </s> -0.3010
-0.3010 STEPS </s> -0.3010
-0.3010 THREE STEPS 0.0000
-0.3010 TODAY? </s> -0.3010
-0.6021 TURN LEFT -0.2430
-0.6021 TURN RIGHT -0.2430
-0.3010 TWO STEPS 0.0000
-0.6021 WALK BACKWARDS 0.0000
-0.6021 WALK FORWARDS 0.0000
-0.3010 WATCHING </s> -0.3010
-0.3010 YOU TODAY? 0.0000
-0.7782 YOUR GRIPPER 0.0000
-0.7782 YOUR LEFT -0.1761
-0.7782 YOUR RIGHT -0.1761

\3-grams:
-0.3010 <s> CLOSE YOUR
-0.3010 <s> FIVE STEPS
-0.3010 <s> FOUR STEPS
-0.3010 <s> HELLO MARTY
-0.3010 <s> HOW ARE
-0.6021 <s> KICK LEFT
-0.6021 <s> KICK RIGHT
-0.3010 <s> LOWER YOUR
-0.3010 <s> MARTY DANCE
-0.3010 <s> ONE STEP
-0.3010 <s> OPEN YOUR
-0.3010 <s> RAISE YOUR
-0.3010 <s> THREE STEPS
-0.6021 <s> TURN LEFT
-0.6021 <s> TURN RIGHT
-0.3010 <s> TWO STEPS
-0.6021 <s> WALK BACKWARDS
-0.6021 <s> WALK FORWARDS
-0.3010 ARE YOU TODAY?
-0.3010 CLOSE YOUR GRIPPER
-0.3010 DANCE LIKE NO
-0.3010 FIVE STEPS </s>
-0.3010 FOUR STEPS </s>
-0.3010 HELLO MARTY </s>
-0.3010 HOW ARE YOU
-0.3010 KICK LEFT FOOT
-0.3010 KICK RIGHT FOOT
-0.3010 LEFT ARM </s>
-0.3010 LEFT FOOT </s>
-0.3010 LIKE NO ONE'S
-0.6021 LOWER YOUR LEFT
-0.6021 LOWER YOUR RIGHT
-0.6021 MARTY DANCE </s>
-0.6021 MARTY DANCE LIKE
-0.3010 NO ONE'S WATCHING
-0.3010 ONE STEP </s>
-0.3010 ONE'S WATCHING </s>
-0.3010 OPEN YOUR GRIPPER
-0.6021 RAISE YOUR LEFT
-0.6021 RAISE YOUR RIGHT
-0.3010 RIGHT ARM </s>
-0.3010 RIGHT FOOT </s>
-0.3010 THREE STEPS </s>
-0.3010 TURN LEFT </s>
-0.3010 TURN RIGHT </s>
-0.3010 TWO STEPS </s>
-0.3010 WALK BACKWARDS </s>
-0.3010 WALK FORWARDS </s>
-0.3010 YOU TODAY? </s>
-0.3010 YOUR GRIPPER </s>
-0.3010 YOUR LEFT ARM
-0.3010 YOUR RIGHT ARM

\end\
